<?xml version="1.0"?>
<opencv_storage>
<cascade>
  <stageType>BOOST</stageType>
  <featureType>HAAR</featureType>
  <height>24</height>
  <width>24</width>
  <stageParams>
    <boostType>GAB</boostType>
    <minHitRate>9.9500000476837158e-01</minHitRate>
    <maxFalseAlarm>5.0000000000000000e-01</maxFalseAlarm>
    <weightTrimRate>9.4999998807907104e-01</weightTrimRate>
    <maxDepth>1</maxDepth>
    <maxWeakCount>100</maxWeakCount></stageParams>
  <featureParams>
    <maxCatCount>0</maxCatCount>
    <featSize>1</featSize>
    <mode>BASIC</mode></featureParams>
  <stageNum>6</stageNum>
  <stages>
    <!-- stage 0 -->
    <_>
      <maxWeakCount>3</maxWeakCount>
      <stageThreshold>-1.0809426307678223e+00</stageThreshold>
      <weakClassifiers>
        <_>
          <internalNodes>
            0 -1 3 3.0956202745437622e-01</internalNodes>
          <leafValues>
            -9.9004977941513062e-01 1.</leafValues></_>
        <_>
          <internalNodes>
            0 -1 14 -1.3514061458408833e-02</internalNodes>
          <leafValues>
            9.3327516317367554e-01 -9.8560297489166260e-01</leafValues></_>
        <_>
          <internalNodes>
            0 -1 2 4.0117201209068298e-01</internalNodes>
          <leafValues>
            -9.4050657749176025e-01 8.9471006393432617e-01</leafValues></_></weakClassifiers></_>
    <!-- stage 1 -->
    <_>
      <maxWeakCount>3</maxWeakCount>
      <stageThreshold>-1.7835619449615479e+00</stageThreshold>
      <weakClassifiers>
        <_>
          <internalNodes>
            0 -1 7 -3.6117509007453918e-02</internalNodes>
          <leafValues>
            2.1428571641445160e-01 -9.8793971538543701e-01</leafValues></_>
        <_>
          <internalNodes>
            0 -1 8 -8.3138167858123779e-02</internalNodes>
          <leafValues>
            1.5501472353935242e-01 -9.6805655956268311e-01</leafValues></_>
        <_>
          <internalNodes>
            0 -1 0 -3.3604796975851059e-02</internalNodes>
          <leafValues>
            4.1715821623802185e-01 -9.5063692331314087e-01</leafValues></_></weakClassifiers></_>
    <!-- stage 2 -->
    <_>
      <maxWeakCount>3</maxWeakCount>
      <stageThreshold>-1.3705451488494873e+00</stageThreshold>
      <weakClassifiers>
        <_>
          <internalNodes>
            0 -1 11 2.1175157278776169e-02</internalNodes>
          <leafValues>
            -9.7230464220046997e-01 5.0000000000000000e-01</leafValues></_>
        <_>
          <internalNodes>
            0 -1 9 -3.0202317982912064e-02</internalNodes>
          <leafValues>
            6.2938094139099121e-01 -8.7969100475311279e-01</leafValues></_>
        <_>
          <internalNodes>
            0 -1 1 -1.2786898761987686e-02</internalNodes>
          <leafValues>
            4.8145055770874023e-01 -9.0623897314071655e-01</leafValues></_></weakClassifiers></_>
    <!-- stage 3 -->
    <_>
      <maxWeakCount>3</maxWeakCount>
      <stageThreshold>-1.5826678276062012e+00</stageThreshold>
      <weakClassifiers>
        <_>
          <internalNodes>
            0 -1 10 1.3570521026849747e-02</internalNodes>
          <leafValues>
            -9.6844184398651123e-01 5.5555558204650879e-01</leafValues></_>
        <_>
          <internalNodes>
            0 -1 4 -1.9315026700496674e-02</internalNodes>
          <leafValues>
            3.1437727808952332e-01 -9.2921346426010132e-01</leafValues></_>
        <_>
          <internalNodes>
            0 -1 5 -8.2998070865869522e-03</internalNodes>
          <leafValues>
            3.6438274383544922e-01 -9.2860329151153564e-01</leafValues></_></weakClassifiers></_>
    <!-- stage 4 -->
    <_>
      <maxWeakCount>3</maxWeakCount>
      <stageThreshold>-1.2512766122817993e+00</stageThreshold>
      <weakClassifiers>
        <_>
          <internalNodes>
            0 -1 6 3.5666427016258240e-01</internalNodes>
          <leafValues>
            -9.7433364391326904e-01 1.</leafValues></_>
        <_>
          <internalNodes>
            0 -1 13 -7.8400015830993652e-02</internalNodes>
          <leafValues>
            8.9857089519500732e-01 -9.3198961019515991e-01</leafValues></_>
        <_>
          <internalNodes>
            0 -1 15 -5.2618682384490967e-03</internalNodes>
          <leafValues>
            6.5504664182662964e-01 -8.0876743793487549e-01</leafValues></_></weakClassifiers></_>
    <!-- stage 5 -->
    <_>
      <maxWeakCount>1</maxWeakCount>
      <stageThreshold>1.</stageThreshold>
      <weakClassifiers>
        <_>
          <internalNodes>
            0 -1 12 -2.7844328433275223e-03</internalNodes>
          <leafValues>
            -1. 1.</leafValues></_></weakClassifiers></_></stages>
  <features>
    <_>
      <rects>
        <_>
          0 2 2 18 -1.</_>
        <_>
          0 11 2 9 2.</_></rects>
      <tilted>0</tilted></_>
    <_>
      <rects>
        <_>
          0 20 11 3 -1.</_>
        <_>
          0 21 11 1 3.</_></rects>
      <tilted>0</tilted></_>
    <_>
      <rects>
        <_>
          3 6 18 18 -1.</_>
        <_>
          3 12 18 6 3.</_></rects>
      <tilted>0</tilted></_>
    <_>
      <rects>
        <_>
          3 7 13 15 -1.</_>
        <_>
          3 12 13 5 3.</_></rects>
      <tilted>0</tilted></_>
    <_>
      <rects>
        <_>
          3 18 12 3 -1.</_>
        <_>
          3 19 12 1 3.</_></rects>
      <tilted>0</tilted></_>
    <_>
      <rects>
        <_>
          4 2 4 8 -1.</_>
        <_>
          4 2 2 4 2.</_>
        <_>
          6 6 2 4 2.</_></rects>
      <tilted>0</tilted></_>
    <_>
      <rects>
        <_>
          4 7 11 15 -1.</_>
        <_>
          4 12 11 5 3.</_></rects>
      <tilted>0</tilted></_>
    <_>
      <rects>
        <_>
          4 20 14 3 -1.</_>
        <_>
          4 21 14 1 3.</_></rects>
      <tilted>0</tilted></_>
    <_>
      <rects>
        <_>
          6 1 7 10 -1.</_>
        <_>
          6 6 7 5 2.</_></rects>
      <tilted>0</tilted></_>
    <_>
      <rects>
        <_>
          6 10 14 3 -1.</_>
        <_>
          6 11 14 1 3.</_></rects>
      <tilted>0</tilted></_>
    <_>
      <rects>
        <_>
          7 4 4 3 -1.</_>
        <_>
          7 5 4 1 3.</_></rects>
      <tilted>0</tilted></_>
    <_>
      <rects>
        <_>
          9 17 4 3 -1.</_>
        <_>
          9 18 4 1 3.</_></rects>
      <tilted>0</tilted></_>
    <_>
      <rects>
        <_>
          13 8 9 5 -1.</_>
        <_>
          16 8 3 5 3.</_></rects>
      <tilted>0</tilted></_>
    <_>
      <rects>
        <_>
          13 9 4 14 -1.</_>
        <_>
          13 16 4 7 2.</_></rects>
      <tilted>0</tilted></_>
    <_>
      <rects>
        <_>
          15 16 3 3 -1.</_>
        <_>
          15 17 3 1 3.</_></rects>
      <tilted>0</tilted></_>
    <_>
      <rects>
        <_>
          18 14 3 4 -1.</_>
        <_>
          19 14 1 4 3.</_></rects>
      <tilted>0</tilted></_></features></cascade>
</opencv_storage>
